digraph Tree {
0 [label="X[0] <= 5.5000\nmse = 60.0797670187\nsamples = 318", shape="box"] ;
1 [label="X[1] <= 78.6407\nmse = 33.7839291341\nsamples = 169", shape="box"] ;
0 -> 1 ;
2 [label="X[1] <= 70.5000\nmse = 26.6031701963\nsamples = 88", shape="box"] ;
1 -> 2 ;
3 [label="X[1] <= 47.0000\nmse = 22.2841836735\nsamples = 56", shape="box"] ;
2 -> 3 ;
4 [label="mse = 0.0000\nsamples = 2\nvalue = [ 26.]", shape="box"] ;
3 -> 4 ;
5 [label="X[1] <= 48.5000\nmse = 20.9035253772\nsamples = 54", shape="box"] ;
3 -> 5 ;
6 [label="mse = 0.2025\nsamples = 2\nvalue = [ 43.85]", shape="box"] ;
5 -> 6 ;
7 [label="X[1] <= 52.5000\nmse = 17.7130288462\nsamples = 52", shape="box"] ;
5 -> 7 ;
8 [label="X[1] <= 50.5000\nmse = 2.5075\nsamples = 4", shape="box"] ;
7 -> 8 ;
9 [label="mse = 0.0000\nsamples = 1\nvalue = [ 29.]", shape="box"] ;
8 -> 9 ;
10 [label="mse = 2.4089\nsamples = 3\nvalue = [ 30.93333333]", shape="box"] ;
8 -> 10 ;
11 [label="X[1] <= 67.5000\nmse = 18.1540581597\nsamples = 48", shape="box"] ;
7 -> 11 ;
12 [label="X[1] <= 61.5000\nmse = 20.5675386445\nsamples = 29", shape="box"] ;
11 -> 12 ;
13 [label="X[1] <= 59.0000\nmse = 21.5333333333\nsamples = 9", shape="box"] ;
12 -> 13 ;
14 [label="X[1] <= 55.5000\nmse = 6.20222222222\nsamples = 3", shape="box"] ;
13 -> 14 ;
15 [label="mse = 0.0000\nsamples = 1\nvalue = [ 33.]", shape="box"] ;
14 -> 15 ;
16 [label="mse = 2.4025\nsamples = 2\nvalue = [ 37.55]", shape="box"] ;
14 -> 16 ;
17 [label="X[1] <= 60.5000\nmse = 24.1288888889\nsamples = 6", shape="box"] ;
13 -> 17 ;
18 [label="mse = 28.9504\nsamples = 5\nvalue = [ 32.16]", shape="box"] ;
17 -> 18 ;
19 [label="mse = -0.0000\nsamples = 1\nvalue = [ 32.]", shape="box"] ;
17 -> 19 ;
20 [label="X[1] <= 64.5000\nmse = 19.514475\nsamples = 20", shape="box"] ;
12 -> 20 ;
21 [label="X[1] <= 63.5000\nmse = 9.5656\nsamples = 5", shape="box"] ;
20 -> 21 ;
22 [label="X[1] <= 62.5000\nmse = 9.106875\nsamples = 4", shape="box"] ;
21 -> 22 ;
23 [label="mse = 0.0000\nsamples = 1\nvalue = [ 37.7]", shape="box"] ;
22 -> 23 ;
24 [label="mse = 9.4200\nsamples = 3\nvalue = [ 34.4]", shape="box"] ;
22 -> 24 ;
25 [label="mse = 0.0000\nsamples = 1\nvalue = [ 39.]", shape="box"] ;
21 -> 25 ;
26 [label="X[0] <= 4.5000\nmse = 22.2582222222\nsamples = 15", shape="box"] ;
20 -> 26 ;
27 [label="X[1] <= 66.0000\nmse = 23.5620408163\nsamples = 14", shape="box"] ;
26 -> 27 ;
28 [label="mse = 14.2453\nsamples = 7\nvalue = [ 34.24285714]", shape="box"] ;
27 -> 28 ;
29 [label="mse = 32.8641\nsamples = 7\nvalue = [ 34.41428571]", shape="box"] ;
27 -> 29 ;
30 [label="mse = -0.0000\nsamples = 1\nvalue = [ 36.4]", shape="box"] ;
26 -> 30 ;
31 [label="X[1] <= 68.5000\nmse = 12.6883102493\nsamples = 19", shape="box"] ;
11 -> 31 ;
32 [label="mse = 7.8056\nsamples = 5\nvalue = [ 32.42]", shape="box"] ;
31 -> 32 ;
33 [label="X[1] <= 69.5000\nmse = 14.3969387755\nsamples = 14", shape="box"] ;
31 -> 33 ;
34 [label="mse = 23.7756\nsamples = 3\nvalue = [ 32.76666667]", shape="box"] ;
33 -> 34 ;
35 [label="mse = 11.8390\nsamples = 11\nvalue = [ 32.79090909]", shape="box"] ;
33 -> 35 ;
36 [label="X[1] <= 78.1407\nmse = 24.3867871094\nsamples = 32", shape="box"] ;
2 -> 36 ;
37 [label="X[1] <= 76.5000\nmse = 20.1098454221\nsamples = 29", shape="box"] ;
36 -> 37 ;
38 [label="X[1] <= 73.0000\nmse = 21.1747222222\nsamples = 24", shape="box"] ;
37 -> 38 ;
39 [label="X[1] <= 71.5000\nmse = 15.3820408163\nsamples = 7", shape="box"] ;
38 -> 39 ;
40 [label="mse = 8.4650\nsamples = 4\nvalue = [ 28.9]", shape="box"] ;
39 -> 40 ;
41 [label="mse = 21.6689\nsamples = 3\nvalue = [ 26.63333333]", shape="box"] ;
39 -> 41 ;
42 [label="X[1] <= 74.5000\nmse = 21.3764013841\nsamples = 17", shape="box"] ;
38 -> 42 ;
43 [label="mse = 3.3689\nsamples = 3\nvalue = [ 33.53333333]", shape="box"] ;
42 -> 43 ;
44 [label="X[1] <= 75.5000\nmse = 23.0939285714\nsamples = 14", shape="box"] ;
42 -> 44 ;
45 [label="mse = 11.4898\nsamples = 11\nvalue = [ 29.74545455]", shape="box"] ;
44 -> 45 ;
46 [label="mse = 64.0556\nsamples = 3\nvalue = [ 31.16666667]", shape="box"] ;
44 -> 46 ;
47 [label="X[0] <= 4.5000\nmse = 7.1136\nsamples = 5", shape="box"] ;
37 -> 47 ;
48 [label="mse = 8.2969\nsamples = 4\nvalue = [ 27.125]", shape="box"] ;
47 -> 48 ;
49 [label="mse = -0.0000\nsamples = 1\nvalue = [ 25.4]", shape="box"] ;
47 -> 49 ;
50 [label="mse = 54.8467\nsamples = 3\nvalue = [ 32.8]", shape="box"] ;
36 -> 50 ;
51 [label="X[1] <= 84.5000\nmse = 18.1048315806\nsamples = 81", shape="box"] ;
1 -> 51 ;
52 [label="X[1] <= 79.5000\nmse = 10.7024888889\nsamples = 15", shape="box"] ;
51 -> 52 ;
53 [label="mse = 1.0000\nsamples = 2\nvalue = [ 27.]", shape="box"] ;
52 -> 53 ;
54 [label="X[1] <= 80.5000\nmse = 11.9163313609\nsamples = 13", shape="box"] ;
52 -> 54 ;
55 [label="mse = 14.3744\nsamples = 5\nvalue = [ 28.94]", shape="box"] ;
54 -> 55 ;
56 [label="X[1] <= 81.5000\nmse = 10.13234375\nsamples = 8", shape="box"] ;
54 -> 56 ;
57 [label="mse = 0.0000\nsamples = 1\nvalue = [ 25.]", shape="box"] ;
56 -> 57 ;
58 [label="X[1] <= 82.5000\nmse = 9.97265306122\nsamples = 7", shape="box"] ;
56 -> 58 ;
59 [label="mse = 0.0000\nsamples = 1\nvalue = [ 31.]", shape="box"] ;
58 -> 59 ;
60 [label="X[1] <= 83.5000\nmse = 10.5013888889\nsamples = 6", shape="box"] ;
58 -> 60 ;
61 [label="mse = 14.2969\nsamples = 4\nvalue = [ 28.125]", shape="box"] ;
60 -> 61 ;
62 [label="mse = 2.8900\nsamples = 2\nvalue = [ 28.3]", shape="box"] ;
60 -> 62 ;
63 [label="X[1] <= 101.0000\nmse = 17.5768158861\nsamples = 66", shape="box"] ;
51 -> 63 ;
64 [label="X[0] <= 3.5000\nmse = 17.7999471074\nsamples = 55", shape="box"] ;
63 -> 64 ;
65 [label="X[1] <= 98.5000\nmse = 6.17555555556\nsamples = 3", shape="box"] ;
64 -> 65 ;
66 [label="X[1] <= 93.5000\nmse = 0.25\nsamples = 2", shape="box"] ;
65 -> 66 ;
67 [label="mse = 0.0000\nsamples = 1\nvalue = [ 18.]", shape="box"] ;
66 -> 67 ;
68 [label="mse = 0.0000\nsamples = 1\nvalue = [ 19.]", shape="box"] ;
66 -> 68 ;
69 [label="mse = -0.0000\nsamples = 1\nvalue = [ 23.7]", shape="box"] ;
65 -> 69 ;
70 [label="X[1] <= 87.5000\nmse = 16.8996153846\nsamples = 52", shape="box"] ;
64 -> 70 ;
71 [label="X[1] <= 85.5000\nmse = 12.8048979592\nsamples = 7", shape="box"] ;
70 -> 71 ;
72 [label="mse = 24.3200\nsamples = 3\nvalue = [ 24.6]", shape="box"] ;
71 -> 72 ;
73 [label="X[1] <= 86.5000\nmse = 0.6875\nsamples = 4", shape="box"] ;
71 -> 73 ;
74 [label="mse = 0.6667\nsamples = 3\nvalue = [ 22.]", shape="box"] ;
73 -> 74 ;
75 [label="mse = 0.0000\nsamples = 1\nvalue = [ 21.]", shape="box"] ;
73 -> 75 ;
76 [label="X[1] <= 99.0000\nmse = 16.2945876543\nsamples = 45", shape="box"] ;
70 -> 76 ;
77 [label="X[1] <= 93.5000\nmse = 15.5611311983\nsamples = 44", shape="box"] ;
76 -> 77 ;
78 [label="X[1] <= 91.5000\nmse = 18.2907222222\nsamples = 30", shape="box"] ;
77 -> 78 ;
79 [label="X[1] <= 90.5000\nmse = 17.7820659722\nsamples = 24", shape="box"] ;
78 -> 79 ;
80 [label="X[1] <= 89.5000\nmse = 16.8135727788\nsamples = 23", shape="box"] ;
79 -> 80 ;
81 [label="X[1] <= 88.5000\nmse = 20.1778698225\nsamples = 13", shape="box"] ;
80 -> 81 ;
82 [label="mse = 21.8317\nsamples = 12\nvalue = [ 26.1]", shape="box"] ;
81 -> 82 ;
83 [label="mse = 0.0000\nsamples = 1\nvalue = [ 25.5]", shape="box"] ;
81 -> 83 ;
84 [label="mse = 11.9340\nsamples = 10\nvalue = [ 27.]", shape="box"] ;
80 -> 84 ;
85 [label="mse = 0.0000\nsamples = 1\nvalue = [ 20.]", shape="box"] ;
79 -> 85 ;
86 [label="X[1] <= 92.5000\nmse = 18.2666666667\nsamples = 6", shape="box"] ;
78 -> 86 ;
87 [label="mse = 21.1424\nsamples = 5\nvalue = [ 28.16]", shape="box"] ;
86 -> 87 ;
88 [label="mse = -0.0000\nsamples = 1\nvalue = [ 26.]", shape="box"] ;
86 -> 88 ;
89 [label="X[1] <= 96.5000\nmse = 6.73918367347\nsamples = 14", shape="box"] ;
77 -> 89 ;
90 [label="X[1] <= 95.5000\nmse = 9.18987654321\nsamples = 9", shape="box"] ;
89 -> 90 ;
91 [label="X[1] <= 94.5000\nmse = 4.27222222222\nsamples = 6", shape="box"] ;
90 -> 91 ;
92 [label="mse = 0.0000\nsamples = 1\nvalue = [ 22.]", shape="box"] ;
91 -> 92 ;
93 [label="mse = 4.2296\nsamples = 5\nvalue = [ 24.32]", shape="box"] ;
91 -> 93 ;
94 [label="mse = 12.0556\nsamples = 3\nvalue = [ 27.16666667]", shape="box"] ;
90 -> 94 ;
95 [label="X[1] <= 97.5000\nmse = 0.6176\nsamples = 5", shape="box"] ;
89 -> 95 ;
96 [label="mse = 0.1769\nsamples = 4\nvalue = [ 23.725]", shape="box"] ;
95 -> 96 ;
97 [label="mse = -0.0000\nsamples = 1\nvalue = [ 22.]", shape="box"] ;
95 -> 97 ;
98 [label="mse = -0.0000\nsamples = 1\nvalue = [ 32.9]", shape="box"] ;
76 -> 98 ;
99 [label="X[1] <= 112.5000\nmse = 8.69520661157\nsamples = 11", shape="box"] ;
63 -> 99 ;
100 [label="X[1] <= 111.0000\nmse = 8.674375\nsamples = 8", shape="box"] ;
99 -> 100 ;
101 [label="X[1] <= 104.0000\nmse = 7.41555555556\nsamples = 6", shape="box"] ;
100 -> 101 ;
102 [label="X[0] <= 4.5000\nmse = 0.0225000000001\nsamples = 2", shape="box"] ;
101 -> 102 ;
103 [label="mse = 0.0000\nsamples = 1\nvalue = [ 20.]", shape="box"] ;
102 -> 103 ;
104 [label="mse = 0.0000\nsamples = 1\nvalue = [ 20.3]", shape="box"] ;
102 -> 104 ;
105 [label="X[1] <= 107.5000\nmse = 6.851875\nsamples = 4", shape="box"] ;
101 -> 105 ;
106 [label="mse = 0.0000\nsamples = 1\nvalue = [ 27.9]", shape="box"] ;
105 -> 106 ;
107 [label="X[0] <= 3.5000\nmse = 1.38888888889\nsamples = 3", shape="box"] ;
105 -> 107 ;
108 [label="mse = 0.0000\nsamples = 1\nvalue = [ 21.5]", shape="box"] ;
107 -> 108 ;
109 [label="mse = 1.5625\nsamples = 2\nvalue = [ 22.75]", shape="box"] ;
107 -> 109 ;
110 [label="mse = 0.2500\nsamples = 2\nvalue = [ 18.5]", shape="box"] ;
100 -> 110 ;
111 [label="X[1] <= 114.0000\nmse = 3.54666666667\nsamples = 3", shape="box"] ;
99 -> 111 ;
112 [label="mse = 0.0000\nsamples = 1\nvalue = [ 26.]", shape="box"] ;
111 -> 112 ;
113 [label="mse = 2.8900\nsamples = 2\nvalue = [ 23.3]", shape="box"] ;
111 -> 113 ;
114 [label="X[1] <= 127.0000\nmse = 16.3351542723\nsamples = 149", shape="box"] ;
0 -> 114 ;
115 [label="X[1] <= 111.0000\nmse = 12.9692561\nsamples = 71", shape="box"] ;
114 -> 115 ;
116 [label="X[1] <= 76.5000\nmse = 11.7336222222\nsamples = 60", shape="box"] ;
115 -> 116 ;
117 [label="mse = 0.0000\nsamples = 2\nvalue = [ 15.]", shape="box"] ;
116 -> 117 ;
118 [label="X[1] <= 86.5000\nmse = 11.3591557669\nsamples = 58", shape="box"] ;
116 -> 118 ;
119 [label="X[1] <= 83.0000\nmse = 40.293877551\nsamples = 7", shape="box"] ;
118 -> 119 ;
120 [label="mse = 0.0000\nsamples = 1\nvalue = [ 24.]", shape="box"] ;
119 -> 120 ;
121 [label="mse = 46.8367\nsamples = 6\nvalue = [ 22.9]", shape="box"] ;
119 -> 121 ;
122 [label="X[0] <= 7.0000\nmse = 5.76660515186\nsamples = 51", shape="box"] ;
118 -> 122 ;
123 [label="X[1] <= 96.0000\nmse = 4.63270321361\nsamples = 46", shape="box"] ;
122 -> 123 ;
124 [label="X[1] <= 89.0000\nmse = 2.931875\nsamples = 12", shape="box"] ;
123 -> 124 ;
125 [label="mse = 1.2100\nsamples = 2\nvalue = [ 19.1]", shape="box"] ;
124 -> 125 ;
126 [label="X[1] <= 92.5000\nmse = 3.0709\nsamples = 10", shape="box"] ;
124 -> 126 ;
127 [label="mse = 1.8369\nsamples = 4\nvalue = [ 20.275]", shape="box"] ;
126 -> 127 ;
128 [label="mse = 3.8889\nsamples = 6\nvalue = [ 20.16666667]", shape="box"] ;
126 -> 128 ;
129 [label="X[1] <= 100.7530\nmse = 4.88000865052\nsamples = 34", shape="box"] ;
123 -> 129 ;
130 [label="X[1] <= 97.5000\nmse = 3.6083984375\nsamples = 16", shape="box"] ;
129 -> 130 ;
131 [label="mse = 3.5556\nsamples = 3\nvalue = [ 19.33333333]", shape="box"] ;
130 -> 131 ;
132 [label="X[1] <= 99.0000\nmse = 3.40828402367\nsamples = 13", shape="box"] ;
130 -> 132 ;
133 [label="mse = 0.0000\nsamples = 1\nvalue = [ 18.5]", shape="box"] ;
132 -> 133 ;
134 [label="mse = 3.6875\nsamples = 12\nvalue = [ 18.25]", shape="box"] ;
132 -> 134 ;
135 [label="X[1] <= 103.2530\nmse = 5.75098765432\nsamples = 18", shape="box"] ;
129 -> 135 ;
136 [label="mse = 0.0000\nsamples = 1\nvalue = [ 21.]", shape="box"] ;
135 -> 136 ;
137 [label="X[1] <= 106.0000\nmse = 5.88996539792\nsamples = 17", shape="box"] ;
135 -> 137 ;
138 [label="mse = 4.9014\nsamples = 6\nvalue = [ 18.61666667]", shape="box"] ;
137 -> 138 ;
139 [label="X[1] <= 107.5000\nmse = 6.22743801653\nsamples = 11", shape="box"] ;
137 -> 139 ;
140 [label="mse = 0.0000\nsamples = 1\nvalue = [ 21.]", shape="box"] ;
139 -> 140 ;
141 [label="X[1] <= 109.0000\nmse = 6.5589\nsamples = 10", shape="box"] ;
139 -> 141 ;
142 [label="mse = 0.0000\nsamples = 1\nvalue = [ 19.]", shape="box"] ;
141 -> 142 ;
143 [label="mse = 7.2822\nsamples = 9\nvalue = [ 19.23333333]", shape="box"] ;
141 -> 143 ;
144 [label="X[1] <= 107.5000\nmse = 11.3656\nsamples = 5", shape="box"] ;
122 -> 144 ;
145 [label="X[1] <= 97.5000\nmse = 1.8225\nsamples = 2", shape="box"] ;
144 -> 145 ;
146 [label="mse = 0.0000\nsamples = 1\nvalue = [ 23.9]", shape="box"] ;
145 -> 146 ;
147 [label="mse = 0.0000\nsamples = 1\nvalue = [ 26.6]", shape="box"] ;
145 -> 147 ;
148 [label="mse = 1.9356\nsamples = 3\nvalue = [ 18.96666667]", shape="box"] ;
144 -> 148 ;
149 [label="X[1] <= 118.0000\nmse = 14.6578512397\nsamples = 11", shape="box"] ;
115 -> 149 ;
150 [label="X[1] <= 113.5000\nmse = 7.808\nsamples = 5", shape="box"] ;
149 -> 150 ;
151 [label="mse = 0.0000\nsamples = 1\nvalue = [ 22.]", shape="box"] ;
150 -> 151 ;
152 [label="X[1] <= 115.5000\nmse = 7.131875\nsamples = 4", shape="box"] ;
150 -> 152 ;
153 [label="mse = 9.4867\nsamples = 3\nvalue = [ 25.7]", shape="box"] ;
152 -> 153 ;
154 [label="mse = 0.0000\nsamples = 1\nvalue = [ 25.4]", shape="box"] ;
152 -> 154 ;
155 [label="X[0] <= 7.0000\nmse = 8.54333333333\nsamples = 6", shape="box"] ;
149 -> 155 ;
156 [label="X[1] <= 123.5000\nmse = 7.7944\nsamples = 5", shape="box"] ;
155 -> 156 ;
157 [label="X[1] <= 121.0000\nmse = 8.285\nsamples = 4", shape="box"] ;
156 -> 157 ;
158 [label="mse = 11.0067\nsamples = 3\nvalue = [ 19.6]", shape="box"] ;
157 -> 158 ;
159 [label="mse = -0.0000\nsamples = 1\nvalue = [ 20.]", shape="box"] ;
157 -> 159 ;
160 [label="mse = -0.0000\nsamples = 1\nvalue = [ 17.]", shape="box"] ;
156 -> 160 ;
161 [label="mse = -0.0000\nsamples = 1\nvalue = [ 23.]", shape="box"] ;
155 -> 161 ;
162 [label="X[1] <= 156.5000\nmse = 4.94657626561\nsamples = 78", shape="box"] ;
114 -> 162 ;
163 [label="X[1] <= 146.5000\nmse = 4.00623263889\nsamples = 48", shape="box"] ;
162 -> 163 ;
164 [label="X[1] <= 131.5000\nmse = 4.32638888889\nsamples = 24", shape="box"] ;
163 -> 164 ;
165 [label="X[1] <= 129.5000\nmse = 4.48489795918\nsamples = 7", shape="box"] ;
164 -> 165 ;
166 [label="mse = 5.2900\nsamples = 2\nvalue = [ 15.3]", shape="box"] ;
165 -> 166 ;
167 [label="mse = 4.1600\nsamples = 5\nvalue = [ 15.2]", shape="box"] ;
165 -> 167 ;
168 [label="X[1] <= 139.5000\nmse = 3.63467128028\nsamples = 17", shape="box"] ;
164 -> 168 ;
169 [label="X[1] <= 138.5000\nmse = 2.0504\nsamples = 5", shape="box"] ;
168 -> 169 ;
170 [label="X[0] <= 7.0000\nmse = 0.775555555556\nsamples = 3", shape="box"] ;
169 -> 170 ;
171 [label="mse = 0.0000\nsamples = 1\nvalue = [ 16.2]", shape="box"] ;
170 -> 171 ;
172 [label="X[1] <= 136.5000\nmse = 0.7225\nsamples = 2", shape="box"] ;
170 -> 172 ;
173 [label="mse = 0.0000\nsamples = 1\nvalue = [ 18.2]", shape="box"] ;
172 -> 173 ;
174 [label="mse = -0.0000\nsamples = 1\nvalue = [ 16.5]", shape="box"] ;
172 -> 174 ;
175 [label="mse = 1.1025\nsamples = 2\nvalue = [ 19.15]", shape="box"] ;
169 -> 175 ;
176 [label="X[1] <= 141.0000\nmse = 3.51972222222\nsamples = 12", shape="box"] ;
168 -> 176 ;
177 [label="mse = 3.1536\nsamples = 5\nvalue = [ 16.78]", shape="box"] ;
176 -> 177 ;
178 [label="X[1] <= 143.5000\nmse = 3.39265306122\nsamples = 7", shape="box"] ;
176 -> 178 ;
179 [label="mse = 0.0000\nsamples = 1\nvalue = [ 15.5]", shape="box"] ;
178 -> 179 ;
180 [label="mse = 3.9389\nsamples = 6\nvalue = [ 15.86666667]", shape="box"] ;
178 -> 180 ;
181 [label="X[1] <= 148.5000\nmse = 2.36576388889\nsamples = 24", shape="box"] ;
163 -> 181 ;
182 [label="mse = 0.0000\nsamples = 1\nvalue = [ 14.]", shape="box"] ;
181 -> 182 ;
183 [label="X[1] <= 149.5000\nmse = 2.44994328922\nsamples = 23", shape="box"] ;
181 -> 183 ;
184 [label="mse = 0.0000\nsamples = 1\nvalue = [ 16.]", shape="box"] ;
183 -> 184 ;
185 [label="X[1] <= 154.0000\nmse = 2.47719008264\nsamples = 22", shape="box"] ;
183 -> 185 ;
186 [label="X[1] <= 152.5000\nmse = 2.331875\nsamples = 20", shape="box"] ;
185 -> 186 ;
187 [label="X[1] <= 151.0000\nmse = 2.43628808864\nsamples = 19", shape="box"] ;
186 -> 187 ;
188 [label="mse = 2.5710\nsamples = 18\nvalue = [ 14.61111111]", shape="box"] ;
187 -> 188 ;
189 [label="mse = 0.0000\nsamples = 1\nvalue = [ 14.5]", shape="box"] ;
187 -> 189 ;
190 [label="mse = 0.0000\nsamples = 1\nvalue = [ 14.]", shape="box"] ;
186 -> 190 ;
191 [label="mse = 3.8025\nsamples = 2\nvalue = [ 14.95]", shape="box"] ;
185 -> 191 ;
192 [label="X[0] <= 7.0000\nmse = 3.01156666667\nsamples = 30", shape="box"] ;
162 -> 192 ;
193 [label="mse = 0.0000\nsamples = 1\nvalue = [ 17.7]", shape="box"] ;
192 -> 193 ;
194 [label="X[1] <= 194.0000\nmse = 2.35731272295\nsamples = 29", shape="box"] ;
192 -> 194 ;
195 [label="X[1] <= 185.0000\nmse = 1.8379501385\nsamples = 19", shape="box"] ;
194 -> 195 ;
196 [label="X[1] <= 166.0000\nmse = 1.6787109375\nsamples = 16", shape="box"] ;
195 -> 196 ;
197 [label="X[1] <= 162.5000\nmse = 0.916666666667\nsamples = 6", shape="box"] ;
196 -> 197 ;
198 [label="X[1] <= 159.0000\nmse = 0.666666666667\nsamples = 3", shape="box"] ;
197 -> 198 ;
199 [label="mse = 0.0000\nsamples = 1\nvalue = [ 13.]", shape="box"] ;
198 -> 199 ;
200 [label="mse = 1.0000\nsamples = 2\nvalue = [ 13.]", shape="box"] ;
198 -> 200 ;
201 [label="mse = 0.6667\nsamples = 3\nvalue = [ 14.]", shape="box"] ;
197 -> 201 ;
202 [label="X[1] <= 168.5000\nmse = 2.0225\nsamples = 10", shape="box"] ;
196 -> 202 ;
203 [label="mse = 0.0000\nsamples = 1\nvalue = [ 12.]", shape="box"] ;
202 -> 203 ;
204 [label="X[1] <= 177.5000\nmse = 2.13580246914\nsamples = 9", shape="box"] ;
202 -> 204 ;
205 [label="X[1] <= 172.5000\nmse = 0.16\nsamples = 5", shape="box"] ;
204 -> 205 ;
206 [label="mse = 0.0000\nsamples = 2\nvalue = [ 13.]", shape="box"] ;
205 -> 206 ;
207 [label="mse = 0.2222\nsamples = 3\nvalue = [ 13.33333333]", shape="box"] ;
205 -> 207 ;
208 [label="mse = 4.5469\nsamples = 4\nvalue = [ 12.875]", shape="box"] ;
204 -> 208 ;
209 [label="mse = 1.1667\nsamples = 3\nvalue = [ 14.5]", shape="box"] ;
195 -> 209 ;
210 [label="X[1] <= 212.5000\nmse = 2.29\nsamples = 10", shape="box"] ;
194 -> 210 ;
211 [label="X[1] <= 199.0000\nmse = 0.5\nsamples = 4", shape="box"] ;
210 -> 211 ;
212 [label="mse = 0.0000\nsamples = 1\nvalue = [ 12.]", shape="box"] ;
211 -> 212 ;
213 [label="X[1] <= 204.0000\nmse = 0.222222222222\nsamples = 3", shape="box"] ;
211 -> 213 ;
214 [label="mse = 0.0000\nsamples = 1\nvalue = [ 10.]", shape="box"] ;
213 -> 214 ;
215 [label="mse = 0.0000\nsamples = 2\nvalue = [ 11.]", shape="box"] ;
213 -> 215 ;
216 [label="X[1] <= 217.5000\nmse = 2.13888888889\nsamples = 6", shape="box"] ;
210 -> 216 ;
217 [label="mse = 2.8889\nsamples = 3\nvalue = [ 12.33333333]", shape="box"] ;
216 -> 217 ;
218 [label="X[1] <= 222.5000\nmse = 0.888888888889\nsamples = 3", shape="box"] ;
216 -> 218 ;
219 [label="mse = 0.0000\nsamples = 1\nvalue = [ 14.]", shape="box"] ;
218 -> 219 ;
220 [label="mse = 1.0000\nsamples = 2\nvalue = [ 13.]", shape="box"] ;
218 -> 220 ;
}